FANN_FLO_2.1
num_layers=3
learning_rate=0.007000
connection_rate=1.000000
network_type=0
learning_momentum=0.000000
training_algorithm=3
train_error_function=1
train_stop_function=0
cascade_output_change_fraction=0.010000
quickprop_decay=-0.000100
quickprop_mu=1.750000
rprop_increase_factor=1.200000
rprop_decrease_factor=0.500000
rprop_delta_min=0.000000
rprop_delta_max=50.000000
rprop_delta_zero=0.100000
cascade_output_stagnation_epochs=12
cascade_candidate_change_fraction=0.010000
cascade_candidate_stagnation_epochs=12
cascade_max_out_epochs=150
cascade_min_out_epochs=50
cascade_max_cand_epochs=150
cascade_min_cand_epochs=50
cascade_num_candidate_groups=2
bit_fail_limit=3.49999994039535522461e-01
cascade_candidate_limit=1.00000000000000000000e+03
cascade_weight_multiplier=4.00000005960464477539e-01
cascade_activation_functions_count=10
cascade_activation_functions=3 5 7 8 10 11 14 15 16 17 
cascade_activation_steepnesses_count=4
cascade_activation_steepnesses=2.50000000000000000000e-01 5.00000000000000000000e-01 7.50000000000000000000e-01 1.00000000000000000000e+00 
layer_sizes=7 9 6 
scale_included=0
neurons (num_inputs, activation_function, activation_steepness)=(0, 0, 0.00000000000000000000e+00) (0, 0, 0.00000000000000000000e+00) (0, 0, 0.00000000000000000000e+00) (0, 0, 0.00000000000000000000e+00) (0, 0, 0.00000000000000000000e+00) (0, 0, 0.00000000000000000000e+00) (0, 0, 0.00000000000000000000e+00) (7, 6, 1.00000000000000000000e+00) (7, 6, 1.00000000000000000000e+00) (7, 6, 1.00000000000000000000e+00) (7, 6, 1.00000000000000000000e+00) (7, 6, 1.00000000000000000000e+00) (7, 6, 1.00000000000000000000e+00) (7, 6, 1.00000000000000000000e+00) (7, 6, 1.00000000000000000000e+00) (0, 6, 1.00000000000000000000e+00) (9, 6, 1.00000000000000000000e+00) (9, 6, 1.00000000000000000000e+00) (9, 6, 1.00000000000000000000e+00) (9, 6, 1.00000000000000000000e+00) (9, 6, 1.00000000000000000000e+00) (0, 6, 1.00000000000000000000e+00) 
connections (connected_to_neuron, weight)=(0, -4.43623103201389312744e-02) (1, -2.85503063350915908813e-02) (2, -9.04595926403999328613e-02) (3, -1.08352744579315185547e+00) (4, 4.21552181243896484375e+00) (5, 7.86365509033203125000e+01) (6, 1.58431100845336914063e+00) (0, 1.10687306150794029236e-02) (1, -1.54911214485764503479e-02) (2, 2.31303668022155761719e+00) (3, 5.94805181026458740234e-01) (4, 3.01428675651550292969e+00) (5, -1.40296864509582519531e+00) (6, 8.33382546901702880859e-01) (0, -3.92980486154556274414e-01) (1, -1.54645919799804687500e+00) (2, -5.33470988273620605469e-01) (3, -5.13917446136474609375e+00) (4, 8.90863418579101562500e+00) (5, 2.35635256767272949219e+00) (6, 1.11066192388534545898e-01) (0, -1.69056606292724609375e+00) (1, -1.01457133889198303223e-01) (2, -9.84532594680786132813e-01) (3, 5.62797927856445312500e+01) (4, 6.94416570663452148438e+00) (5, 5.95469141006469726563e+00) (6, 4.55397653579711914063e+00) (0, -8.17270636558532714844e-01) (1, -1.73677027225494384766e+00) (2, 5.27026462554931640625e+00) (3, -4.67321491241455078125e+00) (4, 3.06178092956542968750e+01) (5, -3.28886437416076660156e+00) (6, 3.78759987652301788330e-02) (0, -2.85558414459228515625e+00) (1, -6.29568719863891601563e+00) (2, 3.79010915756225585938e+00) (3, 6.47713470458984375000e+00) (4, -2.15817153453826904297e-01) (5, 8.00908684730529785156e-01) (6, -2.04310894012451171875e+00) (0, 9.10141944885253906250e-01) (1, 8.08805078268051147461e-02) (2, 1.35511802509427070618e-02) (3, 4.82304096221923828125e-01) (4, -3.96895915269851684570e-01) (5, -5.63017465174198150635e-03) (6, -1.61531460285186767578e+00) (0, -8.79404097795486450195e-02) (1, -2.65929736196994781494e-02) (2, 6.72986432909965515137e-02) (3, 4.43954281508922576904e-02) (4, 7.09463953971862792969e-02) (5, -2.67434678971767425537e-02) (6, -4.80371892452239990234e-01) (7, 1.15154579281806945801e-01) (8, 1.38561755418777465820e-01) (9, 9.42552983760833740234e-02) (10, -8.09704959392547607422e-01) (11, -1.05504706501960754395e-01) (12, 8.84604454040527343750e-03) (13, 1.37372776865959167480e-01) (14, 1.77720218896865844727e-01) (15, 4.91479873657226562500e-01) (7, -1.20837247371673583984e+00) (8, 3.94157648086547851563e-01) (9, 9.67351347208023071289e-02) (10, 1.41356992721557617188e+00) (11, 1.22909188270568847656e+00) (12, 6.63719326257705688477e-03) (13, 7.60324597358703613281e-02) (14, -2.49220418930053710938e+00) (15, 6.08711600303649902344e-01) (7, -4.29811030626296997070e-02) (8, 3.67337107658386230469e-01) (9, 7.01159983873367309570e-02) (10, -3.10597777366638183594e-01) (11, -7.64322519302368164063e-01) (12, 2.67676889896392822266e-01) (13, -2.08861798048019409180e-01) (14, 6.66968047618865966797e-01) (15, 9.60979238152503967285e-02) (7, 6.88552320003509521484e-01) (8, 2.56028562784194946289e-01) (9, -6.87169969081878662109e-01) (10, 4.23834979534149169922e-01) (11, 5.47368871048092842102e-03) (12, -5.07529020309448242188e-01) (13, -3.79867911338806152344e-01) (14, 4.80888873338699340820e-01) (15, -2.93974697589874267578e-01) (7, -1.88888311386108398438e-02) (8, -1.36090087890625000000e+00) (9, 3.26099574565887451172e-01) (10, -6.13853037357330322266e-02) (11, 2.87721548229455947876e-02) (12, -9.95321944355964660645e-03) (13, 3.42591702938079833984e-01) (14, 6.07368469238281250000e-01) (15, 8.03129434585571289063e-01) 
