FANN_FLO_2.1
num_layers=3
learning_rate=0.007000
connection_rate=1.000000
network_type=0
learning_momentum=0.000000
training_algorithm=3
train_error_function=1
train_stop_function=0
cascade_output_change_fraction=0.010000
quickprop_decay=-0.000100
quickprop_mu=1.750000
rprop_increase_factor=1.200000
rprop_decrease_factor=0.500000
rprop_delta_min=0.000000
rprop_delta_max=50.000000
rprop_delta_zero=0.100000
cascade_output_stagnation_epochs=12
cascade_candidate_change_fraction=0.010000
cascade_candidate_stagnation_epochs=12
cascade_max_out_epochs=150
cascade_min_out_epochs=50
cascade_max_cand_epochs=150
cascade_min_cand_epochs=50
cascade_num_candidate_groups=2
bit_fail_limit=3.49999994039535522461e-01
cascade_candidate_limit=1.00000000000000000000e+03
cascade_weight_multiplier=4.00000005960464477539e-01
cascade_activation_functions_count=10
cascade_activation_functions=3 5 7 8 10 11 14 15 16 17 
cascade_activation_steepnesses_count=4
cascade_activation_steepnesses=2.50000000000000000000e-01 5.00000000000000000000e-01 7.50000000000000000000e-01 1.00000000000000000000e+00 
layer_sizes=7 9 6 
scale_included=0
neurons (num_inputs, activation_function, activation_steepness)=(0, 0, 0.00000000000000000000e+00) (0, 0, 0.00000000000000000000e+00) (0, 0, 0.00000000000000000000e+00) (0, 0, 0.00000000000000000000e+00) (0, 0, 0.00000000000000000000e+00) (0, 0, 0.00000000000000000000e+00) (0, 0, 0.00000000000000000000e+00) (7, 6, 1.00000000000000000000e+00) (7, 6, 1.00000000000000000000e+00) (7, 6, 1.00000000000000000000e+00) (7, 6, 1.00000000000000000000e+00) (7, 6, 1.00000000000000000000e+00) (7, 6, 1.00000000000000000000e+00) (7, 6, 1.00000000000000000000e+00) (7, 6, 1.00000000000000000000e+00) (0, 6, 1.00000000000000000000e+00) (9, 6, 1.00000000000000000000e+00) (9, 6, 1.00000000000000000000e+00) (9, 6, 1.00000000000000000000e+00) (9, 6, 1.00000000000000000000e+00) (9, 6, 1.00000000000000000000e+00) (0, 6, 1.00000000000000000000e+00) 
connections (connected_to_neuron, weight)=(0, -9.61835607886314392090e-02) (1, -2.99918744713068008423e-02) (2, 3.13811525702476501465e-02) (3, 3.99579033255577087402e-02) (4, 1.91418066620826721191e-01) (5, -4.96641732752323150635e-02) (6, 3.46205651760101318359e-01) (0, -3.36196869611740112305e-01) (1, 1.73649609088897705078e-01) (2, -9.41868275403976440430e-02) (3, -1.19813762605190277100e-01) (4, 1.63520783185958862305e-01) (5, 1.00349307060241699219e-01) (6, 8.07468950748443603516e-01) (0, -6.69622868299484252930e-02) (1, 2.11549457162618637085e-02) (2, 6.79367259144783020020e-02) (3, 5.54424524307250976563e-03) (4, 2.94566601514816284180e-01) (5, -2.06862427294254302979e-02) (6, -1.20161283016204833984e+00) (0, 1.05415321886539459229e-01) (1, -1.60382501780986785889e-02) (2, -1.73915615081787109375e+01) (3, -7.52673768997192382813e+00) (4, -6.36224126815795898438e+00) (5, 2.02357978820800781250e+01) (6, 1.50435721874237060547e+00) (0, -1.78540205955505371094e+00) (1, 3.83484661579132080078e-02) (2, 1.36602193117141723633e-01) (3, 5.13567365705966949463e-02) (4, 1.45670369267463684082e-01) (5, -1.66890807449817657471e-02) (6, -7.86667704582214355469e-01) (0, 2.24699825048446655273e-01) (1, -1.74128971993923187256e-02) (2, 1.59559771418571472168e-01) (3, -2.32476163655519485474e-02) (4, -1.48851587437093257904e-03) (5, -1.47949472069740295410e-01) (6, 2.20730161666870117188e+00) (0, 4.95648346841335296631e-02) (1, 2.15054244995117187500e+01) (2, 1.35091142654418945313e+01) (3, -2.24422645568847656250e+01) (4, 1.07166004180908203125e+01) (5, 8.74018249511718750000e+01) (6, 7.28196561336517333984e-01) (0, -2.21984595060348510742e-01) (1, -1.07684964314103126526e-02) (2, 4.86499397084116935730e-03) (3, 9.65701490640640258789e-02) (4, 7.64781832695007324219e-02) (5, 2.50370413064956665039e-01) (6, -7.15250551700592041016e-01) (7, -4.14268709719181060791e-02) (8, 9.12196710705757141113e-02) (9, -1.09918785095214843750e+00) (10, 4.31937545537948608398e-01) (11, 1.49449086189270019531e+00) (12, 8.22398886084556579590e-02) (13, 7.79524957761168479919e-03) (14, -1.02502989768981933594e+00) (15, 1.03268110752105712891e+00) (7, -1.99827861785888671875e+00) (8, 5.24532869458198547363e-02) (9, 1.80266189575195312500e+00) (10, -3.52341718971729278564e-02) (11, -3.57038885354995727539e-01) (12, 4.46837842464447021484e-02) (13, -1.22330570220947265625e+00) (14, 7.94234037399291992188e-01) (15, 9.23922896385192871094e-01) (7, 4.15392011404037475586e-01) (8, -7.15773582458496093750e-01) (9, 1.39979287981986999512e-01) (10, 2.03687250614166259766e-01) (11, -1.61777377128601074219e-01) (12, 9.10268202424049377441e-02) (13, 6.83114051818847656250e-01) (14, -8.07484909892082214355e-02) (15, -2.93720401823520660400e-02) (7, 5.83878219127655029297e-01) (8, 2.96598732471466064453e-01) (9, 2.46731668710708618164e-01) (10, 1.73733860254287719727e-01) (11, -3.29589098691940307617e-01) (12, 3.86798202991485595703e-01) (13, 4.99604642391204833984e-02) (14, 9.77914705872535705566e-02) (15, -5.40437936782836914063e-01) (7, 3.74354273080825805664e-02) (8, 1.30370974540710449219e-01) (9, -1.48307812213897705078e+00) (10, -1.15481972694396972656e+00) (11, 2.59924009442329406738e-02) (12, -1.08913910388946533203e+00) (13, 7.09290280938148498535e-02) (14, 1.32420822978019714355e-01) (15, 1.19316768646240234375e+00) 
