FANN_FLO_2.1
num_layers=3
learning_rate=0.005000
connection_rate=1.000000
network_type=0
learning_momentum=0.000000
training_algorithm=2
train_error_function=1
train_stop_function=0
cascade_output_change_fraction=0.010000
quickprop_decay=-0.000100
quickprop_mu=1.750000
rprop_increase_factor=1.200000
rprop_decrease_factor=0.500000
rprop_delta_min=0.000000
rprop_delta_max=50.000000
rprop_delta_zero=0.100000
cascade_output_stagnation_epochs=12
cascade_candidate_change_fraction=0.010000
cascade_candidate_stagnation_epochs=12
cascade_max_out_epochs=150
cascade_min_out_epochs=50
cascade_max_cand_epochs=150
cascade_min_cand_epochs=50
cascade_num_candidate_groups=2
bit_fail_limit=3.49999994039535522461e-01
cascade_candidate_limit=1.00000000000000000000e+03
cascade_weight_multiplier=4.00000005960464477539e-01
cascade_activation_functions_count=10
cascade_activation_functions=3 5 7 8 10 11 14 15 16 17 
cascade_activation_steepnesses_count=4
cascade_activation_steepnesses=2.50000000000000000000e-01 5.00000000000000000000e-01 7.50000000000000000000e-01 1.00000000000000000000e+00 
layer_sizes=7 9 6 
scale_included=0
neurons (num_inputs, activation_function, activation_steepness)=(0, 0, 0.00000000000000000000e+00) (0, 0, 0.00000000000000000000e+00) (0, 0, 0.00000000000000000000e+00) (0, 0, 0.00000000000000000000e+00) (0, 0, 0.00000000000000000000e+00) (0, 0, 0.00000000000000000000e+00) (0, 0, 0.00000000000000000000e+00) (7, 6, 9.99999977648258209229e-03) (7, 6, 9.99999977648258209229e-03) (7, 6, 9.99999977648258209229e-03) (7, 6, 9.99999977648258209229e-03) (7, 6, 9.99999977648258209229e-03) (7, 6, 9.99999977648258209229e-03) (7, 6, 9.99999977648258209229e-03) (7, 6, 9.99999977648258209229e-03) (0, 6, 9.99999977648258209229e-03) (9, 6, 9.99999977648258209229e-03) (9, 6, 9.99999977648258209229e-03) (9, 6, 9.99999977648258209229e-03) (9, 6, 9.99999977648258209229e-03) (9, 6, 9.99999977648258209229e-03) (0, 6, 9.99999977648258209229e-03) 
connections (connected_to_neuron, weight)=(0, 1.04984765625000000000e+03) (1, -1.50000000000000000000e+03) (2, -2.13959854125976562500e+02) (3, 2.61804595947265625000e+02) (4, 1.10073266601562500000e+03) (5, -1.44377014160156250000e+02) (6, -1.50000000000000000000e+03) (0, -2.94998382568359375000e+02) (1, -1.50000000000000000000e+03) (2, 1.19859533691406250000e+03) (3, 9.24389343261718750000e+01) (4, 1.17836145019531250000e+03) (5, 5.23471252441406250000e+02) (6, 1.50000000000000000000e+03) (0, 1.87064468383789062500e+02) (1, 3.43810546875000000000e+02) (2, 4.48944091796875000000e+02) (3, -1.50000000000000000000e+03) (4, 6.25707214355468750000e+02) (5, -7.96816406250000000000e+01) (6, 1.50000000000000000000e+03) (0, 4.65383682250976562500e+01) (1, -2.96666336059570312500e+01) (2, 4.58043823242187500000e+01) (3, 6.10730667114257812500e+01) (4, 5.16517562866210937500e+01) (5, 1.81122802734375000000e+02) (6, -5.81117919921875000000e+02) (0, 1.15697364807128906250e+02) (1, 8.69041290283203125000e+01) (2, 7.98903198242187500000e+01) (3, -4.34151672363281250000e+02) (4, 4.05621704101562500000e+02) (5, -2.21018943786621093750e+01) (6, -3.02916564941406250000e+02) (0, -9.66465282440185546875e+00) (1, 1.63231750488281250000e+02) (2, 1.50000000000000000000e+03) (3, 3.79854553222656250000e+02) (4, 2.65081237792968750000e+02) (5, -1.50000000000000000000e+03) (6, 5.08312896728515625000e+02) (0, 6.82103347778320312500e+01) (1, 2.87485717773437500000e+02) (2, -1.67614654541015625000e+02) (3, 1.04980726242065429688e+01) (4, 2.77963562011718750000e+02) (5, 1.50000000000000000000e+03) (6, -1.50000000000000000000e+03) (0, -5.19985771179199218750e+01) (1, -1.67616775512695312500e+02) (2, 1.28200119018554687500e+02) (3, 1.50000000000000000000e+03) (4, 3.81510345458984375000e+02) (5, -1.03491748046875000000e+03) (6, 1.75849838256835937500e+02) (7, -1.56344976425170898438e+01) (8, -1.44578994750976562500e+02) (9, -1.07060966491699218750e+01) (10, -9.30000839233398437500e+01) (11, 1.62410564422607421875e+01) (12, 9.44695472717285156250e+00) (13, 1.02618682861328125000e+02) (14, 1.43610305786132812500e+01) (15, 1.19604522705078125000e+02) (7, -8.70352840423583984375e+00) (8, 2.48756561279296875000e+01) (9, -3.29962301254272460938e+00) (10, 1.20859184265136718750e+01) (11, 1.40681915283203125000e+01) (12, -1.20020538330078125000e+02) (13, -3.53027420043945312500e+01) (14, 1.00030670166015625000e+01) (15, 1.06515357971191406250e+02) (7, 7.72655189037322998047e-01) (8, 6.19738578796386718750e+01) (9, -6.63075408935546875000e+01) (10, 6.88036978244781494141e-01) (11, 1.35620021820068359375e+00) (12, 5.98380012512207031250e+01) (13, 2.27715063095092773438e+00) (14, -6.73224639892578125000e+01) (15, 7.61318588256835937500e+00) (7, 5.05701293945312500000e+01) (8, 2.53429198265075683594e+00) (9, 1.18402473449707031250e+02) (10, 6.64544820785522460938e-01) (11, -1.19212997436523437500e+02) (12, -5.21065950393676757813e+00) (13, -3.01752352714538574219e+00) (14, -9.90692615509033203125e-01) (15, 5.38087196350097656250e+01) (7, -1.80045051574707031250e+01) (8, -2.65249900817871093750e+01) (9, -8.95541667938232421875e-01) (10, 5.15373649597167968750e+01) (11, 3.63742866516113281250e+01) (12, 6.39820432662963867188e+00) (13, -2.32374820709228515625e+01) (14, 3.72846946716308593750e+01) (15, -2.41519699096679687500e+01) 
