FANN_FLO_2.1
num_layers=3
learning_rate=0.005000
connection_rate=1.000000
network_type=0
learning_momentum=0.000000
training_algorithm=2
train_error_function=1
train_stop_function=0
cascade_output_change_fraction=0.010000
quickprop_decay=-0.000100
quickprop_mu=1.750000
rprop_increase_factor=1.200000
rprop_decrease_factor=0.500000
rprop_delta_min=0.000000
rprop_delta_max=50.000000
rprop_delta_zero=0.100000
cascade_output_stagnation_epochs=12
cascade_candidate_change_fraction=0.010000
cascade_candidate_stagnation_epochs=12
cascade_max_out_epochs=150
cascade_min_out_epochs=50
cascade_max_cand_epochs=150
cascade_min_cand_epochs=50
cascade_num_candidate_groups=2
bit_fail_limit=3.49999994039535522461e-01
cascade_candidate_limit=1.00000000000000000000e+03
cascade_weight_multiplier=4.00000005960464477539e-01
cascade_activation_functions_count=10
cascade_activation_functions=3 5 7 8 10 11 14 15 16 17 
cascade_activation_steepnesses_count=4
cascade_activation_steepnesses=2.50000000000000000000e-01 5.00000000000000000000e-01 7.50000000000000000000e-01 1.00000000000000000000e+00 
layer_sizes=7 9 6 
scale_included=0
neurons (num_inputs, activation_function, activation_steepness)=(0, 0, 0.00000000000000000000e+00) (0, 0, 0.00000000000000000000e+00) (0, 0, 0.00000000000000000000e+00) (0, 0, 0.00000000000000000000e+00) (0, 0, 0.00000000000000000000e+00) (0, 0, 0.00000000000000000000e+00) (0, 0, 0.00000000000000000000e+00) (7, 6, 4.00000005960464477539e-01) (7, 6, 4.00000005960464477539e-01) (7, 6, 4.00000005960464477539e-01) (7, 6, 4.00000005960464477539e-01) (7, 6, 4.00000005960464477539e-01) (7, 6, 4.00000005960464477539e-01) (7, 6, 4.00000005960464477539e-01) (7, 6, 4.00000005960464477539e-01) (0, 6, 4.00000005960464477539e-01) (9, 6, 4.00000005960464477539e-01) (9, 6, 4.00000005960464477539e-01) (9, 6, 4.00000005960464477539e-01) (9, 6, 4.00000005960464477539e-01) (9, 6, 4.00000005960464477539e-01) (0, 6, 4.00000005960464477539e-01) 
connections (connected_to_neuron, weight)=(0, 1.43883192539215087891e+00) (1, 7.70570158958435058594e-01) (2, 4.94811868667602539063e+00) (3, -1.78901016712188720703e-01) (4, 1.74243643879890441895e-01) (5, -2.83409023284912109375e+00) (6, -1.64770328998565673828e+00) (0, -1.33710145950317382813e-01) (1, -4.14626687765121459961e-01) (2, 1.69482558965682983398e-01) (3, 1.24338895082473754883e-01) (4, -7.60951638221740722656e-01) (5, 1.26589727401733398438e+00) (6, 1.92990446090698242188e+00) (0, 7.12019205093383789063e-03) (1, 1.03203289210796356201e-01) (2, -2.51004956662654876709e-02) (3, -2.04859107732772827148e-01) (4, 3.77009987831115722656e-01) (5, 3.47818255424499511719e-01) (6, -1.21822190284729003906e+00) (0, 1.55784094333648681641e+00) (1, -5.11360824108123779297e-01) (2, -1.39503407478332519531e+00) (3, 1.32781195640563964844e+00) (4, 1.22229027748107910156e+00) (5, -8.16814839839935302734e-01) (6, -2.61961936950683593750e+00) (0, 1.76131403446197509766e+00) (1, -3.89597147703170776367e-01) (2, -2.81356573104858398438e+00) (3, 1.83741903305053710938e+00) (4, 4.63765954971313476563e+00) (5, 2.24694538116455078125e+00) (6, -4.49418973922729492188e+00) (0, 1.95727694034576416016e+00) (1, -2.27850651741027832031e+00) (2, -1.09960949420928955078e+00) (3, 1.05302584171295166016e+00) (4, -1.26759302616119384766e+00) (5, 5.01216459274291992188e+00) (6, -9.04568374156951904297e-01) (0, -1.35020327568054199219e+00) (1, 6.35424673557281494141e-01) (2, 8.93584132194519042969e-01) (3, -3.91436547040939331055e-01) (4, -2.21177077293395996094e+00) (5, -2.73251712322235107422e-01) (6, 9.54465484619140625000e+00) (0, 7.85977900028228759766e-01) (1, 4.49766010046005249023e-01) (2, -2.00045537948608398438e+00) (3, 9.03535079956054687500e+00) (4, 1.48004084825515747070e-01) (5, -4.84578418731689453125e+00) (6, 3.16543650627136230469e+00) (7, 2.04754807054996490479e-02) (8, -3.86110281944274902344e+00) (9, 5.00677967071533203125e+00) (10, 1.29836320877075195313e-01) (11, -3.39199781417846679688e+00) (12, 1.51677441596984863281e+00) (13, 2.16117024421691894531e+00) (14, 1.19812738895416259766e+00) (15, 1.90441155433654785156e+00) (7, -3.46490740776062011719e+00) (8, 1.32865846157073974609e-01) (9, 4.20614540576934814453e-01) (10, 3.98366719484329223633e-01) (11, -1.22224166989326477051e-01) (12, 3.00041842274367809296e-03) (13, 4.39180910587310791016e-01) (14, -5.22960186004638671875e-01) (15, 3.82096195220947265625e+00) (7, 8.08139503002166748047e-01) (8, 1.59493756294250488281e+00) (9, -8.64393949508666992188e-01) (10, 1.71268630027770996094e+00) (11, 4.28876668214797973633e-01) (12, 1.43329352140426635742e-01) (13, 8.95800352096557617188e-01) (14, -1.41332149505615234375e+00) (15, -6.50640428066253662109e-01) (7, 5.05615293979644775391e-01) (8, -2.92600893974304199219e+00) (9, -8.33167839050292968750e+00) (10, -3.12971091270446777344e+00) (11, 2.20935392379760742188e+00) (12, 1.94881761074066162109e+00) (13, -3.73248219490051269531e+00) (14, 4.78064894676208496094e-01) (15, 2.63655591011047363281e+00) (7, 3.88544410467147827148e-01) (8, 5.48235511779785156250e+00) (9, 2.54188156127929687500e+00) (10, 1.70654952526092529297e-01) (11, 1.29744303226470947266e+00) (12, -3.96657156944274902344e+00) (13, -4.78454530239105224609e-01) (14, 5.44107317924499511719e-01) (15, -3.06383395195007324219e+00) 
